<?xml version="1.0"?>
<opencv_storage>
<cascade>
  <stageType>BOOST</stageType>
  <featureType>HAAR</featureType>
  <height>60</height>
  <width>60</width>
  <stageParams>
    <boostType>GAB</boostType>
    <minHitRate>9.9500000476837158e-01</minHitRate>
    <maxFalseAlarm>5.0000000000000000e-01</maxFalseAlarm>
    <weightTrimRate>9.4999999999999996e-01</weightTrimRate>
    <maxDepth>1</maxDepth>
    <maxWeakCount>100</maxWeakCount></stageParams>
  <featureParams>
    <maxCatCount>0</maxCatCount>
    <featSize>1</featSize>
    <mode>BASIC</mode></featureParams>
  <stageNum>20</stageNum>
  <stages>
    <!-- stage 0 -->
    <_>
      <maxWeakCount>2</maxWeakCount>
      <stageThreshold>-2.2565166652202606e-01</stageThreshold>
      <weakClassifiers>
        <_>
          <internalNodes>
            0 -1 55 1.0905740782618523e-03</internalNodes>
          <leafValues>
            -8.8965517282485962e-01 8.8783067464828491e-01</leafValues></_>
        <_>
          <internalNodes>
            0 -1 62 7.5199431739747524e-04</internalNodes>
          <leafValues>
            -9.1948032379150391e-01 6.6400349140167236e-01</leafValues></_></weakClassifiers></_>
    <!-- stage 1 -->
    <_>
      <maxWeakCount>5</maxWeakCount>
      <stageThreshold>-1.0401207208633423e-01</stageThreshold>
      <weakClassifiers>
        <_>
          <internalNodes>
            0 -1 24 9.7910058684647083e-04</internalNodes>
          <leafValues>
            8.4893614053726196e-01 -5.8666664361953735e-01</leafValues></_>
        <_>
          <internalNodes>
            0 -1 2 4.2560342699289322e-02</internalNodes>
          <leafValues>
            -6.7168021202087402e-01 7.8745239973068237e-01</leafValues></_>
        <_>
          <internalNodes>
            0 -1 22 9.9378123879432678e-02</internalNodes>
          <leafValues>
            -5.4064679145812988e-01 6.9055265188217163e-01</leafValues></_>
        <_>
          <internalNodes>
            0 -1 56 2.0236009731888771e-03</internalNodes>
          <leafValues>
            -5.4662775993347168e-01 6.3294494152069092e-01</leafValues></_>
        <_>
          <internalNodes>
            0 -1 88 -5.0778961740434170e-03</internalNodes>
          <leafValues>
            8.3849698305130005e-01 -3.7356621026992798e-01</leafValues></_></weakClassifiers></_>
    <!-- stage 2 -->
    <_>
      <maxWeakCount>4</maxWeakCount>
      <stageThreshold>-1.6823218762874603e-01</stageThreshold>
      <weakClassifiers>
        <_>
          <internalNodes>
            0 -1 34 -9.5272634644061327e-04</internalNodes>
          <leafValues>
            8.2249742746353149e-01 -7.1900826692581177e-01</leafValues></_>
        <_>
          <internalNodes>
            0 -1 69 2.5343089364469051e-03</internalNodes>
          <leafValues>
            -5.9153318405151367e-01 6.9518846273422241e-01</leafValues></_>
        <_>
          <internalNodes>
            0 -1 51 -3.1167007982730865e-03</internalNodes>
          <leafValues>
            -8.5568261146545410e-01 4.7100454568862915e-01</leafValues></_>
        <_>
          <internalNodes>
            0 -1 13 7.6455073431134224e-03</internalNodes>
          <leafValues>
            -6.0400235652923584e-01 6.7130470275878906e-01</leafValues></_></weakClassifiers></_>
    <!-- stage 3 -->
    <_>
      <maxWeakCount>5</maxWeakCount>
      <stageThreshold>-1.2552680075168610e-01</stageThreshold>
      <weakClassifiers>
        <_>
          <internalNodes>
            0 -1 55 7.7567779226228595e-04</internalNodes>
          <leafValues>
            -9.5555555820465088e-01 7.9600000381469727e-01</leafValues></_>
        <_>
          <internalNodes>
            0 -1 43 9.4419373199343681e-03</internalNodes>
          <leafValues>
            -3.8282608985900879e-01 9.1906064748764038e-01</leafValues></_>
        <_>
          <internalNodes>
            0 -1 82 6.4315302297472954e-03</internalNodes>
          <leafValues>
            -4.3553155660629272e-01 7.4305808544158936e-01</leafValues></_>
        <_>
          <internalNodes>
            0 -1 23 3.9005111902952194e-03</internalNodes>
          <leafValues>
            -4.7201305627822876e-01 6.7451345920562744e-01</leafValues></_>
        <_>
          <internalNodes>
            0 -1 63 1.0152732720598578e-03</internalNodes>
          <leafValues>
            -8.8560235500335693e-01 3.6884388327598572e-01</leafValues></_></weakClassifiers></_>
    <!-- stage 4 -->
    <_>
      <maxWeakCount>4</maxWeakCount>
      <stageThreshold>-3.6453664302825928e-01</stageThreshold>
      <weakClassifiers>
        <_>
          <internalNodes>
            0 -1 60 6.2879268079996109e-03</internalNodes>
          <leafValues>
            7.8486055135726929e-01 -9.0697675943374634e-01</leafValues></_>
        <_>
          <internalNodes>
            0 -1 47 -3.0898849945515394e-04</internalNodes>
          <leafValues>
            6.0824757814407349e-01 -8.1967598199844360e-01</leafValues></_>
        <_>
          <internalNodes>
            0 -1 81 -1.9585859263315797e-04</internalNodes>
          <leafValues>
            -8.4664541482925415e-01 3.4163805842399597e-01</leafValues></_>
        <_>
          <internalNodes>
            0 -1 44 -3.8742519915103912e-02</internalNodes>
          <leafValues>
            4.9720159173011780e-01 -6.7135930061340332e-01</leafValues></_></weakClassifiers></_>
    <!-- stage 5 -->
    <_>
      <maxWeakCount>4</maxWeakCount>
      <stageThreshold>-1.1472377181053162e-01</stageThreshold>
      <weakClassifiers>
        <_>
          <internalNodes>
            0 -1 27 -9.9944393150508404e-04</internalNodes>
          <leafValues>
            -9.7468352317810059e-01 7.7843719720840454e-01</leafValues></_>
        <_>
          <internalNodes>
            0 -1 4 4.2343467473983765e-02</internalNodes>
          <leafValues>
            -3.2333618402481079e-01 8.5340762138366699e-01</leafValues></_>
        <_>
          <internalNodes>
            0 -1 90 -7.6343575492501259e-03</internalNodes>
          <leafValues>
            6.7526155710220337e-01 -4.5715788006782532e-01</leafValues></_>
        <_>
          <internalNodes>
            0 -1 74 4.0481405449099839e-05</internalNodes>
          <leafValues>
            4.6371001005172729e-01 -6.7072892189025879e-01</leafValues></_></weakClassifiers></_>
    <!-- stage 6 -->
    <_>
      <maxWeakCount>4</maxWeakCount>
      <stageThreshold>-1.6300648450851440e-01</stageThreshold>
      <weakClassifiers>
        <_>
          <internalNodes>
            0 -1 75 2.9581906346720643e-05</internalNodes>
          <leafValues>
            7.9476863145828247e-01 -8.3333331346511841e-01</leafValues></_>
        <_>
          <internalNodes>
            0 -1 75 -2.1201574782026000e-05</internalNodes>
          <leafValues>
            -8.9976137876510620e-01 5.0687366724014282e-01</leafValues></_>
        <_>
          <internalNodes>
            0 -1 17 -1.1010665446519852e-02</internalNodes>
          <leafValues>
            6.5895539522171021e-01 -4.5578190684318542e-01</leafValues></_>
        <_>
          <internalNodes>
            0 -1 14 6.0941888950765133e-03</internalNodes>
          <leafValues>
            -5.0252580642700195e-01 6.1923509836196899e-01</leafValues></_></weakClassifiers></_>
    <!-- stage 7 -->
    <_>
      <maxWeakCount>5</maxWeakCount>
      <stageThreshold>7.0333190262317657e-02</stageThreshold>
      <weakClassifiers>
        <_>
          <internalNodes>
            0 -1 74 -3.4001393942162395e-05</internalNodes>
          <leafValues>
            -8.9010989665985107e-01 7.9179179668426514e-01</leafValues></_>
        <_>
          <internalNodes>
            0 -1 38 -2.0886529237031937e-03</internalNodes>
          <leafValues>
            5.6448543071746826e-01 -6.9952768087387085e-01</leafValues></_>
        <_>
          <internalNodes>
            0 -1 29 -3.0348026484716684e-05</internalNodes>
          <leafValues>
            -7.8077656030654907e-01 4.6039637923240662e-01</leafValues></_>
        <_>
          <internalNodes>
            0 -1 5 -2.2434428334236145e-02</internalNodes>
          <leafValues>
            8.0570393800735474e-01 -4.2887148261070251e-01</leafValues></_>
        <_>
          <internalNodes>
            0 -1 19 9.7946415189653635e-04</internalNodes>
          <leafValues>
            3.6443275213241577e-01 -8.9041262865066528e-01</leafValues></_></weakClassifiers></_>
    <!-- stage 8 -->
    <_>
      <maxWeakCount>6</maxWeakCount>
      <stageThreshold>-7.2676196694374084e-02</stageThreshold>
      <weakClassifiers>
        <_>
          <internalNodes>
            0 -1 24 2.3412955924868584e-03</internalNodes>
          <leafValues>
            7.9633402824401855e-01 -6.6666668653488159e-01</leafValues></_>
        <_>
          <internalNodes>
            0 -1 69 2.0816426258534193e-03</internalNodes>
          <leafValues>
            -6.5364533662796021e-01 5.3534972667694092e-01</leafValues></_>
        <_>
          <internalNodes>
            0 -1 79 2.2822014987468719e-02</internalNodes>
          <leafValues>
            -6.5492361783981323e-01 4.4407287240028381e-01</leafValues></_>
        <_>
          <internalNodes>
            0 -1 8 6.2675774097442627e-04</internalNodes>
          <leafValues>
            -6.6708087921142578e-01 4.2329999804496765e-01</leafValues></_>
        <_>
          <internalNodes>
            0 -1 85 9.1275535523891449e-03</internalNodes>
          <leafValues>
            -3.2387259602546692e-01 8.3306801319122314e-01</leafValues></_>
        <_>
          <internalNodes>
            0 -1 35 -1.1592649389058352e-03</internalNodes>
          <leafValues>
            7.3325204849243164e-01 -4.5280507206916809e-01</leafValues></_></weakClassifiers></_>
    <!-- stage 9 -->
    <_>
      <maxWeakCount>4</maxWeakCount>
      <stageThreshold>-1.4310331642627716e-01</stageThreshold>
      <weakClassifiers>
        <_>
          <internalNodes>
            0 -1 10 1.1105893179774284e-02</internalNodes>
          <leafValues>
            7.8821176290512085e-01 -8.8764047622680664e-01</leafValues></_>
        <_>
          <internalNodes>
            0 -1 42 1.4114158693701029e-03</internalNodes>
          <leafValues>
            5.0735795497894287e-01 -9.6310907602310181e-01</leafValues></_>
        <_>
          <internalNodes>
            0 -1 68 -6.6313659772276878e-03</internalNodes>
          <leafValues>
            6.2347865104675293e-01 -4.9373608827590942e-01</leafValues></_>
        <_>
          <internalNodes>
            0 -1 48 2.1804900839924812e-02</internalNodes>
          <leafValues>
            -5.5147022008895874e-01 5.2553004026412964e-01</leafValues></_></weakClassifiers></_>
    <!-- stage 10 -->
    <_>
      <maxWeakCount>5</maxWeakCount>
      <stageThreshold>-4.5280849933624268e-01</stageThreshold>
      <weakClassifiers>
        <_>
          <internalNodes>
            0 -1 46 5.0883591175079346e-03</internalNodes>
          <leafValues>
            7.6725840568542480e-01 -8.9473682641983032e-01</leafValues></_>
        <_>
          <internalNodes>
            0 -1 80 -1.5079023432917893e-04</internalNodes>
          <leafValues>
            -6.5435928106307983e-01 5.5294102430343628e-01</leafValues></_>
        <_>
          <internalNodes>
            0 -1 1 1.6778066754341125e-02</internalNodes>
          <leafValues>
            -3.9984533190727234e-01 7.1233218908309937e-01</leafValues></_>
        <_>
          <internalNodes>
            0 -1 57 -3.2616658136248589e-03</internalNodes>
          <leafValues>
            -9.4980823993682861e-01 2.9448270797729492e-01</leafValues></_>
        <_>
          <internalNodes>
            0 -1 0 2.4247542023658752e-01</internalNodes>
          <leafValues>
            -4.6034497022628784e-01 6.2245208024978638e-01</leafValues></_></weakClassifiers></_>
    <!-- stage 11 -->
    <_>
      <maxWeakCount>6</maxWeakCount>
      <stageThreshold>-5.2925401926040649e-01</stageThreshold>
      <weakClassifiers>
        <_>
          <internalNodes>
            0 -1 70 8.4536775830201805e-05</internalNodes>
          <leafValues>
            7.9352223873138428e-01 -7.2549021244049072e-01</leafValues></_>
        <_>
          <internalNodes>
            0 -1 72 7.4032898992300034e-03</internalNodes>
          <leafValues>
            -3.0788293480873108e-01 7.1398472785949707e-01</leafValues></_>
        <_>
          <internalNodes>
            0 -1 66 1.2835491448640823e-02</internalNodes>
          <leafValues>
            -6.1246573925018311e-01 4.7222095727920532e-01</leafValues></_>
        <_>
          <internalNodes>
            0 -1 28 -9.1279149055480957e-03</internalNodes>
          <leafValues>
            6.7805993556976318e-01 -3.6857447028160095e-01</leafValues></_>
        <_>
          <internalNodes>
            0 -1 91 7.0255580358207226e-03</internalNodes>
          <leafValues>
            -2.9433646798133850e-01 8.5472220182418823e-01</leafValues></_>
        <_>
          <internalNodes>
            0 -1 49 -3.6249298136681318e-04</internalNodes>
          <leafValues>
            -9.3658840656280518e-01 2.6048332452774048e-01</leafValues></_></weakClassifiers></_>
    <!-- stage 12 -->
    <_>
      <maxWeakCount>5</maxWeakCount>
      <stageThreshold>-4.7962784767150879e-01</stageThreshold>
      <weakClassifiers>
        <_>
          <internalNodes>
            0 -1 52 -2.2413190454244614e-03</internalNodes>
          <leafValues>
            -8.5000002384185791e-01 7.7029705047607422e-01</leafValues></_>
        <_>
          <internalNodes>
            0 -1 64 1.8660443602129817e-03</internalNodes>
          <leafValues>
            5.2988255023956299e-01 -9.0523821115493774e-01</leafValues></_>
        <_>
          <internalNodes>
            0 -1 20 3.1666830182075500e-03</internalNodes>
          <leafValues>
            -4.4089379906654358e-01 6.4514493942260742e-01</leafValues></_>
        <_>
          <internalNodes>
            0 -1 50 3.3511125948280096e-03</internalNodes>
          <leafValues>
            -3.7456187605857849e-01 6.3231748342514038e-01</leafValues></_>
        <_>
          <internalNodes>
            0 -1 70 -5.5073887779144570e-05</internalNodes>
          <leafValues>
            -9.6435177326202393e-01 2.5245779752731323e-01</leafValues></_></weakClassifiers></_>
    <!-- stage 13 -->
    <_>
      <maxWeakCount>6</maxWeakCount>
      <stageThreshold>-5.4059398174285889e-01</stageThreshold>
      <weakClassifiers>
        <_>
          <internalNodes>
            0 -1 67 -2.4464870803058147e-03</internalNodes>
          <leafValues>
            -6.8539327383041382e-01 7.7022975683212280e-01</leafValues></_>
        <_>
          <internalNodes>
            0 -1 76 7.9134386032819748e-04</internalNodes>
          <leafValues>
            4.4770404696464539e-01 -8.8551563024520874e-01</leafValues></_>
        <_>
          <internalNodes>
            0 -1 16 1.2969742529094219e-02</internalNodes>
          <leafValues>
            -4.0385520458221436e-01 7.1425575017929077e-01</leafValues></_>
        <_>
          <internalNodes>
            0 -1 18 -5.3416437003761530e-04</internalNodes>
          <leafValues>
            -8.2285475730895996e-01 3.2497838139533997e-01</leafValues></_>
        <_>
          <internalNodes>
            0 -1 83 -6.2235645600594580e-05</internalNodes>
          <leafValues>
            -6.5076845884323120e-01 3.3174830675125122e-01</leafValues></_>
        <_>
          <internalNodes>
            0 -1 55 2.5058009196072817e-03</internalNodes>
          <leafValues>
            -5.8059835433959961e-01 4.2674055695533752e-01</leafValues></_></weakClassifiers></_>
    <!-- stage 14 -->
    <_>
      <maxWeakCount>6</maxWeakCount>
      <stageThreshold>-2.2957064211368561e-01</stageThreshold>
      <weakClassifiers>
        <_>
          <internalNodes>
            0 -1 25 2.1045715548098087e-03</internalNodes>
          <leafValues>
            7.5913131237030029e-01 -7.6623374223709106e-01</leafValues></_>
        <_>
          <internalNodes>
            0 -1 15 -2.0914871711283922e-03</internalNodes>
          <leafValues>
            -8.2506257295608521e-01 5.4712396860122681e-01</leafValues></_>
        <_>
          <internalNodes>
            0 -1 63 2.7774549089372158e-03</internalNodes>
          <leafValues>
            -5.9868669509887695e-01 4.3594169616699219e-01</leafValues></_>
        <_>
          <internalNodes>
            0 -1 84 3.0323192477226257e-03</internalNodes>
          <leafValues>
            -4.6064022183418274e-01 6.0800802707672119e-01</leafValues></_>
        <_>
          <internalNodes>
            0 -1 30 -3.8338555023074150e-03</internalNodes>
          <leafValues>
            5.0611370801925659e-01 -5.5785137414932251e-01</leafValues></_>
        <_>
          <internalNodes>
            0 -1 54 1.2112547643482685e-02</internalNodes>
          <leafValues>
            -4.9187600612640381e-01 5.7841092348098755e-01</leafValues></_></weakClassifiers></_>
    <!-- stage 15 -->
    <_>
      <maxWeakCount>6</maxWeakCount>
      <stageThreshold>-2.3387396708130836e-02</stageThreshold>
      <weakClassifiers>
        <_>
          <internalNodes>
            0 -1 53 2.7561187744140625e-03</internalNodes>
          <leafValues>
            7.9853093624114990e-01 -3.7226277589797974e-01</leafValues></_>
        <_>
          <internalNodes>
            0 -1 31 -2.9625880415551364e-04</internalNodes>
          <leafValues>
            4.2369699478149414e-01 -9.3583148717880249e-01</leafValues></_>
        <_>
          <internalNodes>
            0 -1 3 9.5754126086831093e-03</internalNodes>
          <leafValues>
            -4.3208739161491394e-01 5.7238990068435669e-01</leafValues></_>
        <_>
          <internalNodes>
            0 -1 11 -6.9351438432931900e-03</internalNodes>
          <leafValues>
            4.8762881755828857e-01 -5.3386819362640381e-01</leafValues></_>
        <_>
          <internalNodes>
            0 -1 87 5.6552900932729244e-03</internalNodes>
          <leafValues>
            -3.4074094891548157e-01 7.3841959238052368e-01</leafValues></_>
        <_>
          <internalNodes>
            0 -1 6 4.8280995542882010e-05</internalNodes>
          <leafValues>
            3.4144911170005798e-01 -7.4030429124832153e-01</leafValues></_></weakClassifiers></_>
    <!-- stage 16 -->
    <_>
      <maxWeakCount>6</maxWeakCount>
      <stageThreshold>-1.1570375412702560e-01</stageThreshold>
      <weakClassifiers>
        <_>
          <internalNodes>
            0 -1 58 -7.6170719694346189e-04</internalNodes>
          <leafValues>
            -8.4810125827789307e-01 7.6854598522186279e-01</leafValues></_>
        <_>
          <internalNodes>
            0 -1 59 1.2322559487074614e-03</internalNodes>
          <leafValues>
            4.8384472727775574e-01 -8.7649297714233398e-01</leafValues></_>
        <_>
          <internalNodes>
            0 -1 86 -8.4046199917793274e-03</internalNodes>
          <leafValues>
            7.7204060554504395e-01 -3.7987849116325378e-01</leafValues></_>
        <_>
          <internalNodes>
            0 -1 65 -6.4912397647276521e-05</internalNodes>
          <leafValues>
            -7.4843561649322510e-01 3.1781837344169617e-01</leafValues></_>
        <_>
          <internalNodes>
            0 -1 89 -8.1520155072212219e-03</internalNodes>
          <leafValues>
            5.3918248414993286e-01 -4.4521632790565491e-01</leafValues></_>
        <_>
          <internalNodes>
            0 -1 12 2.1583858877420425e-02</internalNodes>
          <leafValues>
            -5.4726314544677734e-01 4.9951970577239990e-01</leafValues></_></weakClassifiers></_>
    <!-- stage 17 -->
    <_>
      <maxWeakCount>6</maxWeakCount>
      <stageThreshold>-1.7100286483764648e-01</stageThreshold>
      <weakClassifiers>
        <_>
          <internalNodes>
            0 -1 71 6.5124026150442660e-05</internalNodes>
          <leafValues>
            7.5024390220642090e-01 -9.0769231319427490e-01</leafValues></_>
        <_>
          <internalNodes>
            0 -1 71 -4.9383728764951229e-05</internalNodes>
          <leafValues>
            -9.3055564165115356e-01 5.0623100996017456e-01</leafValues></_>
        <_>
          <internalNodes>
            0 -1 21 -2.8342388104647398e-03</internalNodes>
          <leafValues>
            5.2294313907623291e-01 -4.7873634099960327e-01</leafValues></_>
        <_>
          <internalNodes>
            0 -1 32 9.0286023914813995e-03</internalNodes>
          <leafValues>
            -2.5794070959091187e-01 8.1454050540924072e-01</leafValues></_>
        <_>
          <internalNodes>
            0 -1 41 -2.7753785252571106e-03</internalNodes>
          <leafValues>
            5.4156458377838135e-01 -3.9970827102661133e-01</leafValues></_>
        <_>
          <internalNodes>
            0 -1 37 -3.3434662327636033e-05</internalNodes>
          <leafValues>
            -8.6805987358093262e-01 2.8885558247566223e-01</leafValues></_></weakClassifiers></_>
    <!-- stage 18 -->
    <_>
      <maxWeakCount>8</maxWeakCount>
      <stageThreshold>-1.4813329279422760e-01</stageThreshold>
      <weakClassifiers>
        <_>
          <internalNodes>
            0 -1 75 -2.4551885871915147e-05</internalNodes>
          <leafValues>
            -8.9655172824859619e-01 7.3837208747863770e-01</leafValues></_>
        <_>
          <internalNodes>
            0 -1 61 2.4332577595487237e-04</internalNodes>
          <leafValues>
            -7.0089787244796753e-01 4.9663931131362915e-01</leafValues></_>
        <_>
          <internalNodes>
            0 -1 40 6.6086938604712486e-03</internalNodes>
          <leafValues>
            -3.8776606321334839e-01 6.5102469921112061e-01</leafValues></_>
        <_>
          <internalNodes>
            0 -1 9 -4.3518533930182457e-03</internalNodes>
          <leafValues>
            -8.3198297023773193e-01 2.7171853184700012e-01</leafValues></_>
        <_>
          <internalNodes>
            0 -1 33 2.1032087504863739e-02</internalNodes>
          <leafValues>
            -3.5852080583572388e-01 7.7656996250152588e-01</leafValues></_>
        <_>
          <internalNodes>
            0 -1 77 2.2410973906517029e-03</internalNodes>
          <leafValues>
            -3.8254097104072571e-01 6.2974083423614502e-01</leafValues></_>
        <_>
          <internalNodes>
            0 -1 45 1.9916962832212448e-02</internalNodes>
          <leafValues>
            -5.9587961435317993e-01 4.4585713744163513e-01</leafValues></_>
        <_>
          <internalNodes>
            0 -1 73 1.2703635729849339e-03</internalNodes>
          <leafValues>
            2.5509959459304810e-01 -9.1647166013717651e-01</leafValues></_></weakClassifiers></_>
    <!-- stage 19 -->
    <_>
      <maxWeakCount>5</maxWeakCount>
      <stageThreshold>-1.7657904326915741e-01</stageThreshold>
      <weakClassifiers>
        <_>
          <internalNodes>
            0 -1 7 -6.7509650252759457e-03</internalNodes>
          <leafValues>
            -7.9487180709838867e-01 7.6284587383270264e-01</leafValues></_>
        <_>
          <internalNodes>
            0 -1 78 -1.2570842955028638e-05</internalNodes>
          <leafValues>
            -5.1378989219665527e-01 5.3462189435958862e-01</leafValues></_>
        <_>
          <internalNodes>
            0 -1 36 6.8284443113952875e-04</internalNodes>
          <leafValues>
            -2.8890073299407959e-01 7.9442143440246582e-01</leafValues></_>
        <_>
          <internalNodes>
            0 -1 26 2.2770724172005430e-05</internalNodes>
          <leafValues>
            3.5081258416175842e-01 -7.5464963912963867e-01</leafValues></_>
        <_>
          <internalNodes>
            0 -1 39 2.1700630895793438e-03</internalNodes>
          <leafValues>
            -4.8754686117172241e-01 4.3089756369590759e-01</leafValues></_></weakClassifiers></_></stages>
  <features>
    <_>
      <rects>
        <_>
          0 9 60 50 -1.</_>
        <_>
          20 9 20 50 3.</_></rects>
      <tilted>0</tilted></_>
    <_>
      <rects>
        <_>
          0 17 10 36 -1.</_>
        <_>
          5 17 5 36 2.</_></rects>
      <tilted>0</tilted></_>
    <_>
      <rects>
        <_>
          0 17 60 26 -1.</_>
        <_>
          20 17 20 26 3.</_></rects>
      <tilted>0</tilted></_>
    <_>
      <rects>
        <_>
          0 18 10 27 -1.</_>
        <_>
          5 18 5 27 2.</_></rects>
      <tilted>0</tilted></_>
    <_>
      <rects>
        <_>
          0 21 30 25 -1.</_>
        <_>
          15 21 15 25 2.</_></rects>
      <tilted>0</tilted></_>
    <_>
      <rects>
        <_>
          0 50 50 10 -1.</_>
        <_>
          0 55 50 5 2.</_></rects>
      <tilted>0</tilted></_>
    <_>
      <rects>
        <_>
          2 2 3 2 -1.</_>
        <_>
          3 2 1 2 3.</_></rects>
      <tilted>0</tilted></_>
    <_>
      <rects>
        <_>
          6 31 48 2 -1.</_>
        <_>
          30 31 24 2 2.</_></rects>
      <tilted>0</tilted></_>
    <_>
      <rects>
        <_>
          8 23 39 1 -1.</_>
        <_>
          21 23 13 1 3.</_></rects>
      <tilted>0</tilted></_>
    <_>
      <rects>
        <_>
          9 25 14 15 -1.</_>
        <_>
          9 30 14 5 3.</_></rects>
      <tilted>0</tilted></_>
    <_>
      <rects>
        <_>
          9 27 44 9 -1.</_>
        <_>
          9 30 44 3 3.</_></rects>
      <tilted>0</tilted></_>
    <_>
      <rects>
        <_>
          9 52 37 8 -1.</_>
        <_>
          9 56 37 4 2.</_></rects>
      <tilted>0</tilted></_>
    <_>
      <rects>
        <_>
          10 20 27 24 -1.</_>
        <_>
          19 20 9 24 3.</_></rects>
      <tilted>0</tilted></_>
    <_>
      <rects>
        <_>
          10 38 42 4 -1.</_>
        <_>
          24 38 14 4 3.</_></rects>
      <tilted>0</tilted></_>
    <_>
      <rects>
        <_>
          11 26 15 14 -1.</_>
        <_>
          16 26 5 14 3.</_></rects>
      <tilted>0</tilted></_>
    <_>
      <rects>
        <_>
          12 31 34 2 -1.</_>
        <_>
          29 31 17 2 2.</_></rects>
      <tilted>0</tilted></_>
    <_>
      <rects>
        <_>
          12 45 37 15 -1.</_>
        <_>
          12 50 37 5 3.</_></rects>
      <tilted>0</tilted></_>
    <_>
      <rects>
        <_>
          12 52 45 8 -1.</_>
        <_>
          12 56 45 4 2.</_></rects>
      <tilted>0</tilted></_>
    <_>
      <rects>
        <_>
          14 29 30 6 -1.</_>
        <_>
          14 31 30 2 3.</_></rects>
      <tilted>0</tilted></_>
    <_>
      <rects>
        <_>
          15 28 7 6 -1.</_>
        <_>
          15 30 7 2 3.</_></rects>
      <tilted>0</tilted></_>
    <_>
      <rects>
        <_>
          15 37 12 5 -1.</_>
        <_>
          19 37 4 5 3.</_></rects>
      <tilted>0</tilted></_>
    <_>
      <rects>
        <_>
          15 55 33 4 -1.</_>
        <_>
          15 57 33 2 2.</_></rects>
      <tilted>0</tilted></_>
    <_>
      <rects>
        <_>
          16 0 35 60 -1.</_>
        <_>
          16 20 35 20 3.</_></rects>
      <tilted>0</tilted></_>
    <_>
      <rects>
        <_>
          16 31 12 13 -1.</_>
        <_>
          20 31 4 13 3.</_></rects>
      <tilted>0</tilted></_>
    <_>
      <rects>
        <_>
          17 27 27 8 -1.</_>
        <_>
          26 27 9 8 3.</_></rects>
      <tilted>0</tilted></_>
    <_>
      <rects>
        <_>
          17 30 32 3 -1.</_>
        <_>
          33 30 16 3 2.</_></rects>
      <tilted>0</tilted></_>
    <_>
      <rects>
        <_>
          17 38 3 2 -1.</_>
        <_>
          17 39 3 1 2.</_></rects>
      <tilted>0</tilted></_>
    <_>
      <rects>
        <_>
          18 28 21 6 -1.</_>
        <_>
          18 30 21 2 3.</_></rects>
      <tilted>0</tilted></_>
    <_>
      <rects>
        <_>
          18 29 24 8 -1.</_>
        <_>
          26 29 8 8 3.</_></rects>
      <tilted>0</tilted></_>
    <_>
      <rects>
        <_>
          18 31 1 3 -1.</_>
        <_>
          18 32 1 1 3.</_></rects>
      <tilted>0</tilted></_>
    <_>
      <rects>
        <_>
          18 34 24 6 -1.</_>
        <_>
          26 34 8 6 3.</_></rects>
      <tilted>0</tilted></_>
    <_>
      <rects>
        <_>
          19 29 6 26 -1.</_>
        <_>
          19 42 6 13 2.</_></rects>
      <tilted>0</tilted></_>
    <_>
      <rects>
        <_>
          19 46 24 9 -1.</_>
        <_>
          19 49 24 3 3.</_></rects>
      <tilted>0</tilted></_>
    <_>
      <rects>
        <_>
          20 13 20 21 -1.</_>
        <_>
          20 20 20 7 3.</_></rects>
      <tilted>0</tilted></_>
    <_>
      <rects>
        <_>
          20 26 3 34 -1.</_>
        <_>
          20 43 3 17 2.</_></rects>
      <tilted>0</tilted></_>
    <_>
      <rects>
        <_>
          20 30 8 2 -1.</_>
        <_>
          24 30 4 2 2.</_></rects>
      <tilted>0</tilted></_>
    <_>
      <rects>
        <_>
          20 30 15 1 -1.</_>
        <_>
          25 30 5 1 3.</_></rects>
      <tilted>0</tilted></_>
    <_>
      <rects>
        <_>
          20 35 1 3 -1.</_>
        <_>
          20 36 1 1 3.</_></rects>
      <tilted>0</tilted></_>
    <_>
      <rects>
        <_>
          20 40 40 3 -1.</_>
        <_>
          40 40 20 3 2.</_></rects>
      <tilted>0</tilted></_>
    <_>
      <rects>
        <_>
          21 15 20 9 -1.</_>
        <_>
          21 18 20 3 3.</_></rects>
      <tilted>0</tilted></_>
    <_>
      <rects>
        <_>
          21 38 18 9 -1.</_>
        <_>
          21 41 18 3 3.</_></rects>
      <tilted>0</tilted></_>
    <_>
      <rects>
        <_>
          22 24 15 6 -1.</_>
        <_>
          27 24 5 6 3.</_></rects>
      <tilted>0</tilted></_>
    <_>
      <rects>
        <_>
          22 29 18 4 -1.</_>
        <_>
          22 29 9 2 2.</_>
        <_>
          31 31 9 2 2.</_></rects>
      <tilted>0</tilted></_>
    <_>
      <rects>
        <_>
          22 34 18 15 -1.</_>
        <_>
          22 39 18 5 3.</_></rects>
      <tilted>0</tilted></_>
    <_>
      <rects>
        <_>
          22 34 34 26 -1.</_>
        <_>
          22 47 34 13 2.</_></rects>
      <tilted>0</tilted></_>
    <_>
      <rects>
        <_>
          23 9 33 31 -1.</_>
        <_>
          34 9 11 31 3.</_></rects>
      <tilted>0</tilted></_>
    <_>
      <rects>
        <_>
          23 35 26 5 -1.</_>
        <_>
          36 35 13 5 2.</_></rects>
      <tilted>0</tilted></_>
    <_>
      <rects>
        <_>
          24 37 28 5 -1.</_>
        <_>
          38 37 14 5 2.</_></rects>
      <tilted>0</tilted></_>
    <_>
      <rects>
        <_>
          25 8 27 32 -1.</_>
        <_>
          34 8 9 32 3.</_></rects>
      <tilted>0</tilted></_>
    <_>
      <rects>
        <_>
          25 13 3 9 -1.</_>
        <_>
          26 13 1 9 3.</_></rects>
      <tilted>0</tilted></_>
    <_>
      <rects>
        <_>
          25 18 21 4 -1.</_>
        <_>
          32 18 7 4 3.</_></rects>
      <tilted>0</tilted></_>
    <_>
      <rects>
        <_>
          25 28 18 10 -1.</_>
        <_>
          34 28 9 10 2.</_></rects>
      <tilted>0</tilted></_>
    <_>
      <rects>
        <_>
          26 8 9 46 -1.</_>
        <_>
          29 8 3 46 3.</_></rects>
      <tilted>0</tilted></_>
    <_>
      <rects>
        <_>
          26 19 9 24 -1.</_>
        <_>
          26 27 9 8 3.</_></rects>
      <tilted>0</tilted></_>
    <_>
      <rects>
        <_>
          26 21 24 10 -1.</_>
        <_>
          34 21 8 10 3.</_></rects>
      <tilted>0</tilted></_>
    <_>
      <rects>
        <_>
          26 29 9 4 -1.</_>
        <_>
          29 29 3 4 3.</_></rects>
      <tilted>0</tilted></_>
    <_>
      <rects>
        <_>
          26 30 9 3 -1.</_>
        <_>
          29 30 3 3 3.</_></rects>
      <tilted>0</tilted></_>
    <_>
      <rects>
        <_>
          27 11 6 38 -1.</_>
        <_>
          27 11 3 19 2.</_>
        <_>
          30 30 3 19 2.</_></rects>
      <tilted>0</tilted></_>
    <_>
      <rects>
        <_>
          27 17 6 26 -1.</_>
        <_>
          29 17 2 26 3.</_></rects>
      <tilted>0</tilted></_>
    <_>
      <rects>
        <_>
          27 38 6 8 -1.</_>
        <_>
          29 38 2 8 3.</_></rects>
      <tilted>0</tilted></_>
    <_>
      <rects>
        <_>
          28 18 6 20 -1.</_>
        <_>
          28 28 6 10 2.</_></rects>
      <tilted>0</tilted></_>
    <_>
      <rects>
        <_>
          28 27 4 6 -1.</_>
        <_>
          28 29 4 2 3.</_></rects>
      <tilted>0</tilted></_>
    <_>
      <rects>
        <_>
          28 27 4 9 -1.</_>
        <_>
          28 30 4 3 3.</_></rects>
      <tilted>0</tilted></_>
    <_>
      <rects>
        <_>
          28 27 5 9 -1.</_>
        <_>
          28 30 5 3 3.</_></rects>
      <tilted>0</tilted></_>
    <_>
      <rects>
        <_>
          28 37 6 17 -1.</_>
        <_>
          30 37 2 17 3.</_></rects>
      <tilted>0</tilted></_>
    <_>
      <rects>
        <_>
          28 42 6 1 -1.</_>
        <_>
          30 42 2 1 3.</_></rects>
      <tilted>0</tilted></_>
    <_>
      <rects>
        <_>
          29 0 14 48 -1.</_>
        <_>
          29 16 14 16 3.</_></rects>
      <tilted>0</tilted></_>
    <_>
      <rects>
        <_>
          29 12 2 34 -1.</_>
        <_>
          29 29 2 17 2.</_></rects>
      <tilted>0</tilted></_>
    <_>
      <rects>
        <_>
          29 19 11 24 -1.</_>
        <_>
          29 27 11 8 3.</_></rects>
      <tilted>0</tilted></_>
    <_>
      <rects>
        <_>
          29 25 3 12 -1.</_>
        <_>
          29 29 3 4 3.</_></rects>
      <tilted>0</tilted></_>
    <_>
      <rects>
        <_>
          29 30 2 2 -1.</_>
        <_>
          30 30 1 2 2.</_></rects>
      <tilted>0</tilted></_>
    <_>
      <rects>
        <_>
          29 30 2 2 -1.</_>
        <_>
          29 31 2 1 2.</_></rects>
      <tilted>0</tilted></_>
    <_>
      <rects>
        <_>
          29 35 9 15 -1.</_>
        <_>
          29 40 9 5 3.</_></rects>
      <tilted>0</tilted></_>
    <_>
      <rects>
        <_>
          29 39 6 10 -1.</_>
        <_>
          31 39 2 10 3.</_></rects>
      <tilted>0</tilted></_>
    <_>
      <rects>
        <_>
          30 29 1 3 -1.</_>
        <_>
          30 30 1 1 3.</_></rects>
      <tilted>0</tilted></_>
    <_>
      <rects>
        <_>
          30 30 1 2 -1.</_>
        <_>
          30 31 1 1 2.</_></rects>
      <tilted>0</tilted></_>
    <_>
      <rects>
        <_>
          31 17 1 32 -1.</_>
        <_>
          31 33 1 16 2.</_></rects>
      <tilted>0</tilted></_>
    <_>
      <rects>
        <_>
          31 33 3 12 -1.</_>
        <_>
          31 39 3 6 2.</_></rects>
      <tilted>0</tilted></_>
    <_>
      <rects>
        <_>
          31 42 2 1 -1.</_>
        <_>
          32 42 1 1 2.</_></rects>
      <tilted>0</tilted></_>
    <_>
      <rects>
        <_>
          34 9 10 51 -1.</_>
        <_>
          34 26 10 17 3.</_></rects>
      <tilted>0</tilted></_>
    <_>
      <rects>
        <_>
          35 39 6 2 -1.</_>
        <_>
          37 39 2 2 3.</_></rects>
      <tilted>0</tilted></_>
    <_>
      <rects>
        <_>
          36 3 7 34 -1.</_>
        <_>
          36 20 7 17 2.</_></rects>
      <tilted>0</tilted></_>
    <_>
      <rects>
        <_>
          36 23 12 16 -1.</_>
        <_>
          40 23 4 16 3.</_></rects>
      <tilted>0</tilted></_>
    <_>
      <rects>
        <_>
          36 40 4 1 -1.</_>
        <_>
          38 40 2 1 2.</_></rects>
      <tilted>0</tilted></_>
    <_>
      <rects>
        <_>
          37 31 6 15 -1.</_>
        <_>
          37 36 6 5 3.</_></rects>
      <tilted>0</tilted></_>
    <_>
      <rects>
        <_>
          38 34 10 16 -1.</_>
        <_>
          38 34 5 8 2.</_>
        <_>
          43 42 5 8 2.</_></rects>
      <tilted>0</tilted></_>
    <_>
      <rects>
        <_>
          38 39 16 16 -1.</_>
        <_>
          38 39 8 8 2.</_>
        <_>
          46 47 8 8 2.</_></rects>
      <tilted>0</tilted></_>
    <_>
      <rects>
        <_>
          39 21 9 18 -1.</_>
        <_>
          42 21 3 18 3.</_></rects>
      <tilted>0</tilted></_>
    <_>
      <rects>
        <_>
          42 7 6 32 -1.</_>
        <_>
          45 7 3 32 2.</_></rects>
      <tilted>0</tilted></_>
    <_>
      <rects>
        <_>
          52 15 8 39 -1.</_>
        <_>
          56 15 4 39 2.</_></rects>
      <tilted>0</tilted></_>
    <_>
      <rects>
        <_>
          52 16 8 29 -1.</_>
        <_>
          56 16 4 29 2.</_></rects>
      <tilted>0</tilted></_>
    <_>
      <rects>
        <_>
          53 4 1 54 -1.</_>
        <_>
          53 22 1 18 3.</_></rects>
      <tilted>0</tilted></_></features></cascade>
</opencv_storage>
